{"W1": [[-0.0858420580625534, -0.22002506256103516, -0.2638656198978424, 0.4819726049900055, 0.520579993724823, 0.3681992292404175, 0.40271636843681335, 0.7793376445770264, 0.6534018516540527, 0.9483050107955933, -0.09045030176639557, -0.2712443470954895, -0.3970480263233185, 0.42608878016471863, 0.30603957176208496, -0.025953425094485283], [0.23609037697315216, -0.10399957746267319, -0.23326918482780457, 0.7660520672798157, 0.8983102440834045, 0.8539100885391235, -0.9703043699264526, -0.385245680809021, -0.680964469909668, -1.0744041204452515, 0.2553887665271759, 0.6337315440177917, 0.5803167223930359, -0.7319718599319458, 0.03075922466814518, 0.1436154693365097], [-0.3010224401950836, 0.5199670195579529, 0.15290963649749756, 0.4877857565879822, -0.16773810982704163, 0.01642817258834839, -0.4103432893753052, 0.26630109548568726, 0.2134549617767334, -0.09097662568092346, 0.4804946780204773, 0.07479268312454224, 0.4433993697166443, 0.5551213622093201, -0.36245936155319214, 0.2954556941986084]], "b1": [0.7424829006195068, 0.7219061255455017, -0.11068115383386612, 0.5351949334144592, 0.6345365047454834, 0.6552357077598572, 0.760055422782898, 0.6740725636482239, 0.7714062929153442, 0.7880469560623169, 0.566754937171936, 0.745365560054779, 0.7481379508972168, 0.8121209144592285, -0.16624581813812256, 0.7213833332061768], "W2": [[0.9030874967575073, 0.40797916054725647, -0.483085036277771, 1.2247289419174194, -0.4262557029724121, 0.043104637414216995, -0.3432437479496002, 0.6179282665252686], [0.7087569832801819, 0.1848590075969696, -0.2645148038864136, 1.1720860004425049, -0.24541549384593964, -0.4191199541091919, 0.105931855738163, 1.0901437997817993], [-0.07997126877307892, -0.08813197910785675, -0.1776893138885498, 0.3644116520881653, 0.047640301287174225, -0.1290370672941208, 0.22947248816490173, 0.21669155359268188], [0.2872009873390198, 0.6579229831695557, -0.4784214496612549, 0.6143450140953064, 0.3484930694103241, -0.3127129375934601, -0.2960773706436157, 0.6465223431587219], [0.7815454006195068, 0.785642683506012, -0.2912023067474365, 0.7348691821098328, -0.33667394518852234, 0.515368640422821, -0.33027803897857666, 0.3250812590122223], [0.8668890595436096, 0.8391104340553284, -0.32663869857788086, 0.5858386158943176, 0.1518140435218811, 0.32635727524757385, 0.21654748916625977, 0.970251739025116], [1.080939531326294, 0.6625193357467651, 0.0830690860748291, 0.48341161012649536, -0.04757297411561012, -0.43627604842185974, -0.2852465808391571, 0.17262984812259674], [0.27675747871398926, 0.6950980424880981, -0.21159684658050537, 0.4508417844772339, -0.14395375549793243, -0.37673458456993103, -0.2008577585220337, 0.32085779309272766], [0.29540786147117615, 0.6059668660163879, -0.1455392837524414, 0.7823835611343384, -0.13357645273208618, -0.1478494256734848, 0.34488117694854736, 0.83221036195755], [0.7960078716278076, 0.9679089188575745, 0.1771841049194336, 0.6886239051818848, 0.19255571067333221, -2.2316842079162598, -0.3750375509262085, 0.20399583876132965], [0.9804316759109497, 0.7219275832176208, 0.033280253410339355, 1.028637409210205, -0.005382578354328871, 0.6196090579032898, -0.3136347830295563, 0.1858045607805252], [0.5713716149330139, 0.30704545974731445, 0.15379154682159424, 0.0754665657877922, 0.2521061897277832, 0.49742576479911804, 0.04948039352893829, 0.781246542930603], [0.4282991886138916, 0.8714281916618347, -0.3652709722518921, 0.5849253535270691, -0.332791805267334, -0.17610159516334534, -0.5410242080688477, 0.48233893513679504], [0.6403064131736755, 0.7971681952476501, -0.41442203521728516, 0.3061698377132416, -0.10975897312164307, -1.9420299530029297, -0.3333766460418701, 0.23247089982032776], [-0.04122491553425789, -0.2922990620136261, 0.26843786239624023, -0.033110927790403366, 0.398120641708374, -0.3831362724304199, -0.01907205581665039, -0.011554883792996407], [0.8831151127815247, 0.48704078793525696, 0.08718526363372803, 0.8559325337409973, -0.41104012727737427, 0.1918955296278, -0.21955585479736328, 0.9520232677459717]], "b2": [0.5744312405586243, 0.45404788851737976, 0.0, 0.6556591391563416, -0.07015087455511093, -0.023861849680542946, -0.07139763981103897, 0.5729935765266418], "W3": [[0.731160044670105], [1.0042155981063843], [-0.7172574400901794], [0.6922858357429504], [-0.6076927185058594], [-1.0229021310806274], [0.18452930450439453], [0.9204094409942627]], "b3": [0.3668539226055145]}